<?xml version="1.0"?>
<opencv_storage>
<stage5>
  <maxWeakCount>5</maxWeakCount>
  <stageThreshold>-1.8777377605438232e+00</stageThreshold>
  <weakClassifiers>
    <_>
      <internalNodes>
        0 -1 136594 8.4660332649946213e-03</internalNodes>
      <leafValues>
        -9.1677093505859375e-01 6.1618798971176147e-01</leafValues></_>
    <_>
      <internalNodes>
        0 -1 65108 -4.0874433517456055e-01</internalNodes>
      <leafValues>
        7.2878205776214600e-01 -7.7284306287765503e-01</leafValues></_>
    <_>
      <internalNodes>
        0 -1 97474 -1.1200094595551491e-02</internalNodes>
      <leafValues>
        5.2401888370513916e-01 -9.4039386510848999e-01</leafValues></_>
    <_>
      <internalNodes>
        0 -1 58814 -2.3489017039537430e-03</internalNodes>
      <leafValues>
        3.4898793697357178e-01 -9.8711878061294556e-01</leafValues></_>
    <_>
      <internalNodes>
        0 -1 87248 -2.9564119875431061e-02</internalNodes>
      <leafValues>
        -9.9850535392761230e-01 4.0328213572502136e-01</leafValues></_></weakClassifiers></stage5>
</opencv_storage>
