<?xml version="1.0"?>
<opencv_storage>
<stage9>
  <maxWeakCount>5</maxWeakCount>
  <stageThreshold>-1.9870445728302002e+00</stageThreshold>
  <weakClassifiers>
    <_>
      <internalNodes>
        0 -1 100384 2.4977806955575943e-02</internalNodes>
      <leafValues>
        -9.1638278961181641e-01 6.8349248170852661e-01</leafValues></_>
    <_>
      <internalNodes>
        0 -1 144898 3.8048387505114079e-03</internalNodes>
      <leafValues>
        -9.3045395612716675e-01 3.8024577498435974e-01</leafValues></_>
    <_>
      <internalNodes>
        0 -1 116991 -1.0148608125746250e-03</internalNodes>
      <leafValues>
        3.3404704928398132e-01 -9.6088188886642456e-01</leafValues></_>
    <_>
      <internalNodes>
        0 -1 14768 -8.4030162543058395e-03</internalNodes>
      <leafValues>
        4.6432566642761230e-01 -8.1487679481506348e-01</leafValues></_>
    <_>
      <internalNodes>
        0 -1 128438 8.3567190449684858e-04</internalNodes>
      <leafValues>
        -9.3858057260513306e-01 4.6345701813697815e-01</leafValues></_></weakClassifiers></stage9>
</opencv_storage>
