<?xml version="1.0"?>
<opencv_storage>
<stage4>
  <maxWeakCount>5</maxWeakCount>
  <stageThreshold>-2.8568644523620605e+00</stageThreshold>
  <weakClassifiers>
    <_>
      <internalNodes>
        0 -1 95578 -3.0514962971210480e-02</internalNodes>
      <leafValues>
        7.8093880414962769e-01 -8.9655172824859619e-01</leafValues></_>
    <_>
      <internalNodes>
        0 -1 29767 -6.0617417097091675e-02</internalNodes>
      <leafValues>
        6.5400314331054688e-01 -8.8010644912719727e-01</leafValues></_>
    <_>
      <internalNodes>
        0 -1 123638 1.3495478779077530e-02</internalNodes>
      <leafValues>
        -9.1009879112243652e-01 5.4568654298782349e-01</leafValues></_>
    <_>
      <internalNodes>
        0 -1 7508 -2.6961157098412514e-02</internalNodes>
      <leafValues>
        6.4463055133819580e-01 -7.3862558603286743e-01</leafValues></_>
    <_>
      <internalNodes>
        0 -1 98364 -6.4663879573345184e-02</internalNodes>
      <leafValues>
        5.6851810216903687e-01 -8.1799501180648804e-01</leafValues></_></weakClassifiers></stage4>
</opencv_storage>
