<?xml version="1.0"?>
<opencv_storage>
<stage5>
  <maxWeakCount>6</maxWeakCount>
  <stageThreshold>-2.5358610153198242e+00</stageThreshold>
  <weakClassifiers>
    <_>
      <internalNodes>
        0 -1 56479 -2.6204401254653931e-01</internalNodes>
      <leafValues>
        5.8119660615921021e-01 -9.6083551645278931e-01</leafValues></_>
    <_>
      <internalNodes>
        0 -1 91477 3.6964643746614456e-02</internalNodes>
      <leafValues>
        -9.5797300338745117e-01 4.7067844867706299e-01</leafValues></_>
    <_>
      <internalNodes>
        0 -1 19574 -5.2761808037757874e-02</internalNodes>
      <leafValues>
        5.9411734342575073e-01 -8.2466405630111694e-01</leafValues></_>
    <_>
      <internalNodes>
        0 -1 5128 -5.5781346745789051e-03</internalNodes>
      <leafValues>
        5.3550517559051514e-01 -5.9334069490432739e-01</leafValues></_>
    <_>
      <internalNodes>
        0 -1 78872 -6.2112092971801758e-02</internalNodes>
      <leafValues>
        5.5360794067382813e-01 -7.3696845769882202e-01</leafValues></_>
    <_>
      <internalNodes>
        0 -1 4433 -1.3789191842079163e-02</internalNodes>
      <leafValues>
        4.0907487273216248e-01 -8.3035802841186523e-01</leafValues></_></weakClassifiers></stage5>
</opencv_storage>
