<?xml version="1.0"?>
<opencv_storage>
<stage4>
  <maxWeakCount>7</maxWeakCount>
  <stageThreshold>-2.4943130016326904e+00</stageThreshold>
  <weakClassifiers>
    <_>
      <internalNodes>
        0 -1 52486 3.8253960013389587e-01</internalNodes>
      <leafValues>
        -9.5200502872467041e-01 7.3829531669616699e-01</leafValues></_>
    <_>
      <internalNodes>
        0 -1 76711 1.0337999463081360e-01</internalNodes>
      <leafValues>
        -9.1006940603256226e-01 5.9787023067474365e-01</leafValues></_>
    <_>
      <internalNodes>
        0 -1 71832 -4.7949063591659069e-03</internalNodes>
      <leafValues>
        -8.8862413167953491e-01 4.0720036625862122e-01</leafValues></_>
    <_>
      <internalNodes>
        0 -1 512 -6.3432693481445313e-01</internalNodes>
      <leafValues>
        6.1368387937545776e-01 -6.7310345172882080e-01</leafValues></_>
    <_>
      <internalNodes>
        0 -1 247 3.2311417162418365e-03</internalNodes>
      <leafValues>
        3.7357005476951599e-01 -9.1957640647888184e-01</leafValues></_>
    <_>
      <internalNodes>
        0 -1 49137 -2.4091728031635284e-02</internalNodes>
      <leafValues>
        3.1781783699989319e-01 -9.7618710994720459e-01</leafValues></_>
    <_>
      <internalNodes>
        0 -1 42870 -6.2771486118435860e-03</internalNodes>
      <leafValues>
        -9.6887218952178955e-01 2.3810119926929474e-01</leafValues></_></weakClassifiers></stage4>
</opencv_storage>
