<?xml version="1.0"?>
<opencv_storage>
<cascade>
  <stageType>BOOST</stageType>
  <featureType>HAAR</featureType>
  <height>20</height>
  <width>20</width>
  <stageParams>
    <boostType>GAB</boostType>
    <minHitRate>9.9900001287460327e-01</minHitRate>
    <maxFalseAlarm>4.0000000596046448e-01</maxFalseAlarm>
    <weightTrimRate>9.4999999999999996e-01</weightTrimRate>
    <maxDepth>1</maxDepth>
    <maxWeakCount>100</maxWeakCount></stageParams>
  <featureParams>
    <maxCatCount>0</maxCatCount>
    <featSize>1</featSize>
    <mode>ALL</mode></featureParams>
  <stageNum>9</stageNum>
  <stages>
    <!-- stage 0 -->
    <_>
      <maxWeakCount>3</maxWeakCount>
      <stageThreshold>-1.1015652418136597e+00</stageThreshold>
      <weakClassifiers>
        <_>
          <internalNodes>
            0 -1 2 9.8893225193023682e-02</internalNodes>
          <leafValues>
            -9.9493831396102905e-01 9.0781563520431519e-01</leafValues></_>
        <_>
          <internalNodes>
            0 -1 29 8.7656509131193161e-03</internalNodes>
          <leafValues>
            -9.8449283838272095e-01 9.0496307611465454e-01</leafValues></_>
        <_>
          <internalNodes>
            0 -1 23 1.0540963709354401e-01</internalNodes>
          <leafValues>
            -9.4496190547943115e-01 8.7786591053009033e-01</leafValues></_></weakClassifiers></_>
    <!-- stage 1 -->
    <_>
      <maxWeakCount>4</maxWeakCount>
      <stageThreshold>-2.0987403392791748e+00</stageThreshold>
      <weakClassifiers>
        <_>
          <internalNodes>
            0 -1 9 1.0176436975598335e-02</internalNodes>
          <leafValues>
            -9.5751428604125977e-01 7.7711445093154907e-01</leafValues></_>
        <_>
          <internalNodes>
            0 -1 30 -1.3059149682521820e-01</internalNodes>
          <leafValues>
            8.3737653493881226e-01 -9.1062510013580322e-01</leafValues></_>
        <_>
          <internalNodes>
            0 -1 1 -8.5192233324050903e-02</internalNodes>
          <leafValues>
            8.0928903818130493e-01 -8.9474487304687500e-01</leafValues></_>
        <_>
          <internalNodes>
            0 -1 18 -4.1548740118741989e-03</internalNodes>
          <leafValues>
            6.6414397954940796e-01 -9.8627138137817383e-01</leafValues></_></weakClassifiers></_>
    <!-- stage 2 -->
    <_>
      <maxWeakCount>3</maxWeakCount>
      <stageThreshold>-1.1775335073471069e+00</stageThreshold>
      <weakClassifiers>
        <_>
          <internalNodes>
            0 -1 3 -1.1683332920074463e-01</internalNodes>
          <leafValues>
            7.8441834449768066e-01 -9.2302918434143066e-01</leafValues></_>
        <_>
          <internalNodes>
            0 -1 26 -8.2913627848029137e-03</internalNodes>
          <leafValues>
            6.8853896856307983e-01 -8.2259410619735718e-01</leafValues></_>
        <_>
          <internalNodes>
            0 -1 36 4.2723701335489750e-03</internalNodes>
          <leafValues>
            -9.4304335117340088e-01 6.1063200235366821e-01</leafValues></_></weakClassifiers></_>
    <!-- stage 3 -->
    <_>
      <maxWeakCount>5</maxWeakCount>
      <stageThreshold>-2.9098720550537109e+00</stageThreshold>
      <weakClassifiers>
        <_>
          <internalNodes>
            0 -1 35 -5.8087129145860672e-02</internalNodes>
          <leafValues>
            7.0502793788909912e-01 -8.7928920984268188e-01</leafValues></_>
        <_>
          <internalNodes>
            0 -1 16 -1.1123828589916229e-01</internalNodes>
          <leafValues>
            5.5627644062042236e-01 -9.0672808885574341e-01</leafValues></_>
        <_>
          <internalNodes>
            0 -1 8 4.2864345014095306e-03</internalNodes>
          <leafValues>
            -8.2394593954086304e-01 6.5774530172348022e-01</leafValues></_>
        <_>
          <internalNodes>
            0 -1 32 4.0273778140544891e-02</internalNodes>
          <leafValues>
            -8.6038130521774292e-01 6.0888826847076416e-01</leafValues></_>
        <_>
          <internalNodes>
            0 -1 19 -1.1973083019256592e-01</internalNodes>
          <leafValues>
            4.8940852284431458e-01 -9.0879708528518677e-01</leafValues></_></weakClassifiers></_>
    <!-- stage 4 -->
    <_>
      <maxWeakCount>3</maxWeakCount>
      <stageThreshold>-9.3366748094558716e-01</stageThreshold>
      <weakClassifiers>
        <_>
          <internalNodes>
            0 -1 24 3.1548358500003815e-02</internalNodes>
          <leafValues>
            -8.7118035554885864e-01 8.1485992670059204e-01</leafValues></_>
        <_>
          <internalNodes>
            0 -1 20 -2.9744237661361694e-01</internalNodes>
          <leafValues>
            8.9817285537719727e-01 -7.2816735506057739e-01</leafValues></_>
        <_>
          <internalNodes>
            0 -1 12 8.5171051323413849e-03</internalNodes>
          <leafValues>
            -8.4505528211593628e-01 6.6568022966384888e-01</leafValues></_></weakClassifiers></_>
    <!-- stage 5 -->
    <_>
      <maxWeakCount>3</maxWeakCount>
      <stageThreshold>-1.1459960937500000e+00</stageThreshold>
      <weakClassifiers>
        <_>
          <internalNodes>
            0 -1 14 -1.4187738299369812e-01</internalNodes>
          <leafValues>
            7.4730020761489868e-01 -9.0658831596374512e-01</leafValues></_>
        <_>
          <internalNodes>
            0 -1 5 -2.1917337179183960e-01</internalNodes>
          <leafValues>
            6.3135862350463867e-01 -7.9527181386947632e-01</leafValues></_>
        <_>
          <internalNodes>
            0 -1 21 -5.0277709960937500e-02</internalNodes>
          <leafValues>
            6.4185363054275513e-01 -8.7076646089553833e-01</leafValues></_></weakClassifiers></_>
    <!-- stage 6 -->
    <_>
      <maxWeakCount>5</maxWeakCount>
      <stageThreshold>-1.8656864166259766e+00</stageThreshold>
      <weakClassifiers>
        <_>
          <internalNodes>
            0 -1 10 -3.7198603153228760e-02</internalNodes>
          <leafValues>
            6.5060240030288696e-01 -9.1274106502532959e-01</leafValues></_>
        <_>
          <internalNodes>
            0 -1 11 -2.4199323356151581e-01</internalNodes>
          <leafValues>
            4.2461302876472473e-01 -8.8055855035781860e-01</leafValues></_>
        <_>
          <internalNodes>
            0 -1 17 -6.3251584768295288e-02</internalNodes>
          <leafValues>
            4.8704105615615845e-01 -8.4996396303176880e-01</leafValues></_>
        <_>
          <internalNodes>
            0 -1 0 -1.4571093022823334e-02</internalNodes>
          <leafValues>
            3.7579438090324402e-01 -9.4701230525970459e-01</leafValues></_>
        <_>
          <internalNodes>
            0 -1 33 -3.1582973897457123e-02</internalNodes>
          <leafValues>
            4.9568808078765869e-01 -9.0338879823684692e-01</leafValues></_></weakClassifiers></_>
    <!-- stage 7 -->
    <_>
      <maxWeakCount>6</maxWeakCount>
      <stageThreshold>-1.4877765178680420e+00</stageThreshold>
      <weakClassifiers>
        <_>
          <internalNodes>
            0 -1 13 -1.3998432457447052e-01</internalNodes>
          <leafValues>
            6.1916166543960571e-01 -8.2912153005599976e-01</leafValues></_>
        <_>
          <internalNodes>
            0 -1 25 7.9303979873657227e-03</internalNodes>
          <leafValues>
            -7.6461499929428101e-01 4.6591022610664368e-01</leafValues></_>
        <_>
          <internalNodes>
            0 -1 28 1.9899813458323479e-02</internalNodes>
          <leafValues>
            -9.3836665153503418e-01 3.5898849368095398e-01</leafValues></_>
        <_>
          <internalNodes>
            0 -1 15 2.1137706935405731e-02</internalNodes>
          <leafValues>
            -9.1752219200134277e-01 3.5081622004508972e-01</leafValues></_>
        <_>
          <internalNodes>
            0 -1 31 -1.2398832291364670e-01</internalNodes>
          <leafValues>
            3.9465340971946716e-01 -8.7903058528900146e-01</leafValues></_>
        <_>
          <internalNodes>
            0 -1 4 2.9442168772220612e-02</internalNodes>
          <leafValues>
            -8.9634817838668823e-01 3.4201583266258240e-01</leafValues></_></weakClassifiers></_>
    <!-- stage 8 -->
    <_>
      <maxWeakCount>5</maxWeakCount>
      <stageThreshold>-1.4667018651962280e+00</stageThreshold>
      <weakClassifiers>
        <_>
          <internalNodes>
            0 -1 34 -6.9378495216369629e-02</internalNodes>
          <leafValues>
            6.9001150131225586e-01 -8.6374694108963013e-01</leafValues></_>
        <_>
          <internalNodes>
            0 -1 7 9.9346097558736801e-03</internalNodes>
          <leafValues>
            -7.1898722648620605e-01 5.8757746219635010e-01</leafValues></_>
        <_>
          <internalNodes>
            0 -1 6 -4.2449701577425003e-03</internalNodes>
          <leafValues>
            5.4464155435562134e-01 -6.8666917085647583e-01</leafValues></_>
        <_>
          <internalNodes>
            0 -1 27 -5.3063035011291504e-03</internalNodes>
          <leafValues>
            -9.3432527780532837e-01 3.4755885601043701e-01</leafValues></_>
        <_>
          <internalNodes>
            0 -1 22 9.3281261622905731e-02</internalNodes>
          <leafValues>
            -7.7616810798645020e-01 5.2788466215133667e-01</leafValues></_></weakClassifiers></_></stages>
  <features>
    <_>
      <rects>
        <_>
          0 0 10 4 -1.</_>
        <_>
          0 2 10 2 2.</_></rects>
      <tilted>0</tilted></_>
    <_>
      <rects>
        <_>
          0 0 19 4 -1.</_>
        <_>
          0 2 19 2 2.</_></rects>
      <tilted>0</tilted></_>
    <_>
      <rects>
        <_>
          0 3 14 8 -1.</_>
        <_>
          0 3 7 4 2.</_>
        <_>
          7 7 7 4 2.</_></rects>
      <tilted>0</tilted></_>
    <_>
      <rects>
        <_>
          0 8 14 6 -1.</_>
        <_>
          0 8 7 3 2.</_>
        <_>
          7 11 7 3 2.</_></rects>
      <tilted>0</tilted></_>
    <_>
      <rects>
        <_>
          1 5 8 6 -1.</_>
        <_>
          1 5 4 3 2.</_>
        <_>
          5 8 4 3 2.</_></rects>
      <tilted>0</tilted></_>
    <_>
      <rects>
        <_>
          1 5 14 14 -1.</_>
        <_>
          1 5 7 7 2.</_>
        <_>
          8 12 7 7 2.</_></rects>
      <tilted>0</tilted></_>
    <_>
      <rects>
        <_>
          1 7 4 9 -1.</_>
        <_>
          3 7 2 9 2.</_></rects>
      <tilted>0</tilted></_>
    <_>
      <rects>
        <_>
          1 11 9 2 -1.</_>
        <_>
          4 11 3 2 2.</_></rects>
      <tilted>0</tilted></_>
    <_>
      <rects>
        <_>
          2 10 9 5 -1.</_>
        <_>
          5 10 3 5 2.</_></rects>
      <tilted>0</tilted></_>
    <_>
      <rects>
        <_>
          2 11 9 4 -1.</_>
        <_>
          5 11 3 4 2.</_></rects>
      <tilted>0</tilted></_>
    <_>
      <rects>
        <_>
          3 0 6 4 -1.</_>
        <_>
          3 2 6 2 2.</_></rects>
      <tilted>0</tilted></_>
    <_>
      <rects>
        <_>
          3 1 15 9 -1.</_>
        <_>
          8 4 5 3 9.</_></rects>
      <tilted>0</tilted></_>
    <_>
      <rects>
        <_>
          3 16 6 4 -1.</_>
        <_>
          3 18 6 2 2.</_></rects>
      <tilted>0</tilted></_>
    <_>
      <rects>
        <_>
          4 0 8 4 -1.</_>
        <_>
          6 2 4 4 2.</_></rects>
      <tilted>1</tilted></_>
    <_>
      <rects>
        <_>
          4 0 9 3 -1.</_>
        <_>
          7 3 3 3 3.</_></rects>
      <tilted>1</tilted></_>
    <_>
      <rects>
        <_>
          4 4 4 16 -1.</_>
        <_>
          4 12 4 8 2.</_></rects>
      <tilted>0</tilted></_>
    <_>
      <rects>
        <_>
          5 0 9 3 -1.</_>
        <_>
          8 3 3 3 3.</_></rects>
      <tilted>1</tilted></_>
    <_>
      <rects>
        <_>
          5 11 12 8 -1.</_>
        <_>
          8 11 6 8 2.</_></rects>
      <tilted>0</tilted></_>
    <_>
      <rects>
        <_>
          5 16 8 1 -1.</_>
        <_>
          9 16 4 1 2.</_></rects>
      <tilted>0</tilted></_>
    <_>
      <rects>
        <_>
          8 0 8 9 -1.</_>
        <_>
          8 3 8 3 2.</_></rects>
      <tilted>0</tilted></_>
    <_>
      <rects>
        <_>
          8 0 10 12 -1.</_>
        <_>
          8 4 10 4 2.</_></rects>
      <tilted>0</tilted></_>
    <_>
      <rects>
        <_>
          8 0 12 4 -1.</_>
        <_>
          8 2 12 2 2.</_></rects>
      <tilted>0</tilted></_>
    <_>
      <rects>
        <_>
          8 2 8 15 -1.</_>
        <_>
          8 7 8 5 2.</_></rects>
      <tilted>0</tilted></_>
    <_>
      <rects>
        <_>
          8 4 8 6 -1.</_>
        <_>
          10 6 4 6 2.</_></rects>
      <tilted>1</tilted></_>
    <_>
      <rects>
        <_>
          8 6 4 6 -1.</_>
        <_>
          8 8 4 2 2.</_></rects>
      <tilted>0</tilted></_>
    <_>
      <rects>
        <_>
          8 12 1 3 -1.</_>
        <_>
          7 13 1 1 3.</_></rects>
      <tilted>1</tilted></_>
    <_>
      <rects>
        <_>
          8 13 2 2 -1.</_>
        <_>
          8 13 2 1 2.</_></rects>
      <tilted>1</tilted></_>
    <_>
      <rects>
        <_>
          9 1 10 19 -1.</_>
        <_>
          14 1 5 19 2.</_></rects>
      <tilted>0</tilted></_>
    <_>
      <rects>
        <_>
          9 3 2 15 -1.</_>
        <_>
          9 8 2 5 2.</_></rects>
      <tilted>0</tilted></_>
    <_>
      <rects>
        <_>
          9 4 1 12 -1.</_>
        <_>
          9 8 1 4 2.</_></rects>
      <tilted>0</tilted></_>
    <_>
      <rects>
        <_>
          9 8 8 12 -1.</_>
        <_>
          9 11 8 6 2.</_></rects>
      <tilted>0</tilted></_>
    <_>
      <rects>
        <_>
          10 0 8 9 -1.</_>
        <_>
          10 3 8 3 2.</_></rects>
      <tilted>0</tilted></_>
    <_>
      <rects>
        <_>
          11 2 4 15 -1.</_>
        <_>
          11 7 4 5 2.</_></rects>
      <tilted>0</tilted></_>
    <_>
      <rects>
        <_>
          12 6 8 6 -1.</_>
        <_>
          16 6 4 6 2.</_></rects>
      <tilted>0</tilted></_>
    <_>
      <rects>
        <_>
          14 2 6 10 -1.</_>
        <_>
          14 2 3 5 2.</_>
        <_>
          17 7 3 5 2.</_></rects>
      <tilted>0</tilted></_>
    <_>
      <rects>
        <_>
          14 3 6 8 -1.</_>
        <_>
          14 3 3 4 2.</_>
        <_>
          17 7 3 4 2.</_></rects>
      <tilted>0</tilted></_>
    <_>
      <rects>
        <_>
          16 12 1 8 -1.</_>
        <_>
          16 16 1 4 2.</_></rects>
      <tilted>0</tilted></_></features></cascade>
</opencv_storage>
