<?xml version="1.0"?>
<opencv_storage>
<stage8>
  <maxWeakCount>5</maxWeakCount>
  <stageThreshold>-1.4667018651962280e+00</stageThreshold>
  <weakClassifiers>
    <_>
      <internalNodes>
        0 -1 111566 -6.9378495216369629e-02</internalNodes>
      <leafValues>
        6.9001150131225586e-01 -8.6374694108963013e-01</leafValues></_>
    <_>
      <internalNodes>
        0 -1 17560 9.9346097558736801e-03</internalNodes>
      <leafValues>
        -7.1898722648620605e-01 5.8757746219635010e-01</leafValues></_>
    <_>
      <internalNodes>
        0 -1 15500 -4.2449701577425003e-03</internalNodes>
      <leafValues>
        5.4464155435562134e-01 -6.8666917085647583e-01</leafValues></_>
    <_>
      <internalNodes>
        0 -1 81187 -5.3063035011291504e-03</internalNodes>
      <leafValues>
        -9.3432527780532837e-01 3.4755885601043701e-01</leafValues></_>
    <_>
      <internalNodes>
        0 -1 74255 9.3281261622905731e-02</internalNodes>
      <leafValues>
        -7.7616810798645020e-01 5.2788466215133667e-01</leafValues></_></weakClassifiers></stage8>
</opencv_storage>
