<?xml version="1.0"?>
<opencv_storage>
<stage7>
  <maxWeakCount>5</maxWeakCount>
  <stageThreshold>-1.8113400936126709e+00</stageThreshold>
  <weakClassifiers>
    <_>
      <internalNodes>
        0 -1 20211 -4.5303422957658768e-02</internalNodes>
      <leafValues>
        6.3039398193359375e-01 -9.4117647409439087e-01</leafValues></_>
    <_>
      <internalNodes>
        0 -1 85405 1.7408084124326706e-02</internalNodes>
      <leafValues>
        -7.6634192466735840e-01 7.7084034681320190e-01</leafValues></_>
    <_>
      <internalNodes>
        0 -1 38991 -3.3992165699601173e-03</internalNodes>
      <leafValues>
        4.1172569990158081e-01 -9.1708832979202271e-01</leafValues></_>
    <_>
      <internalNodes>
        0 -1 110799 -8.0266833305358887e-02</internalNodes>
      <leafValues>
        4.5825612545013428e-01 -7.8042322397232056e-01</leafValues></_>
    <_>
      <internalNodes>
        0 -1 58274 -5.5603750050067902e-02</internalNodes>
      <leafValues>
        -9.9500036239624023e-01 3.5501047968864441e-01</leafValues></_></weakClassifiers></stage7>
</opencv_storage>
