<?xml version="1.0"?>
<opencv_storage>
<stage8>
  <maxWeakCount>6</maxWeakCount>
  <stageThreshold>-1.6735819578170776e+00</stageThreshold>
  <weakClassifiers>
    <_>
      <internalNodes>
        0 -1 67208 1.3795851171016693e-01</internalNodes>
      <leafValues>
        -8.7304568290710449e-01 5.7380455732345581e-01</leafValues></_>
    <_>
      <internalNodes>
        0 -1 10844 -3.1014335155487061e-01</internalNodes>
      <leafValues>
        5.7813489437103271e-01 -7.7140456438064575e-01</leafValues></_>
    <_>
      <internalNodes>
        0 -1 4865 -1.3676490634679794e-02</internalNodes>
      <leafValues>
        3.9791122078895569e-01 -9.0766847133636475e-01</leafValues></_>
    <_>
      <internalNodes>
        0 -1 10459 -3.8319867849349976e-01</internalNodes>
      <leafValues>
        3.2010963559150696e-01 -8.9417999982833862e-01</leafValues></_>
    <_>
      <internalNodes>
        0 -1 69872 -2.8874311596155167e-02</internalNodes>
      <leafValues>
        -9.9807089567184448e-01 3.3854684233665466e-01</leafValues></_>
    <_>
      <internalNodes>
        0 -1 956 -2.1711717545986176e-01</internalNodes>
      <leafValues>
        2.1988020837306976e-01 -9.3942296504974365e-01</leafValues></_></weakClassifiers></stage8>
</opencv_storage>
