<?xml version="1.0"?>
<opencv_storage>
<cascade>
  <stageType>BOOST</stageType>
  <featureType>HAAR</featureType>
  <height>20</height>
  <width>20</width>
  <stageParams>
    <boostType>GAB</boostType>
    <minHitRate>9.9900001287460327e-001</minHitRate>
    <maxFalseAlarm>4.0000000596046448e-001</maxFalseAlarm>
    <weightTrimRate>9.4999999999999996e-001</weightTrimRate>
    <maxDepth>1</maxDepth>
    <maxWeakCount>100</maxWeakCount></stageParams>
  <featureParams>
    <maxCatCount>0</maxCatCount>
    <featSize>1</featSize>
    <mode>ALL</mode></featureParams>
  <stageNum>10</stageNum>
  <stages>
    <!-- stage 0 -->
    <_>
      <maxWeakCount>3</maxWeakCount>
      <stageThreshold>-1.2080641984939575e+000</stageThreshold>
      <weakClassifiers>
        <_>
          <internalNodes>
            0 -1 0 -3.6288410425186157e-002</internalNodes>
          <leafValues>
            9.4716984033584595e-001 -9.8377537727355957e-001</leafValues></_>
        <_>
          <internalNodes>
            0 -1 24 2.2362126037478447e-002</internalNodes>
          <leafValues>
            -9.6739089488983154e-001 9.3176847696304321e-001</leafValues></_>
        <_>
          <internalNodes>
            0 -1 15 6.8541467189788818e-002</internalNodes>
          <leafValues>
            -1. 7.4310207366943359e-001</leafValues></_></weakClassifiers></_>
    <!-- stage 1 -->
    <_>
      <maxWeakCount>3</maxWeakCount>
      <stageThreshold>-1.1436872482299805e+000</stageThreshold>
      <weakClassifiers>
        <_>
          <internalNodes>
            0 -1 12 1.3520476222038269e-001</internalNodes>
          <leafValues>
            -9.6069866418838501e-001 8.5642319917678833e-001</leafValues></_>
        <_>
          <internalNodes>
            0 -1 33 1.4291998744010925e-001</internalNodes>
          <leafValues>
            -9.0431755781173706e-001 9.4742727279663086e-001</leafValues></_>
        <_>
          <internalNodes>
            0 -1 11 7.1927286684513092e-002</internalNodes>
          <leafValues>
            -8.5394197702407837e-001 7.2132903337478638e-001</leafValues></_></weakClassifiers></_>
    <!-- stage 2 -->
    <_>
      <maxWeakCount>4</maxWeakCount>
      <stageThreshold>-2.1981928348541260e+000</stageThreshold>
      <weakClassifiers>
        <_>
          <internalNodes>
            0 -1 34 5.7884920388460159e-002</internalNodes>
          <leafValues>
            -9.7143787145614624e-001 6.4526659250259399e-001</leafValues></_>
        <_>
          <internalNodes>
            0 -1 38 1.1958822607994080e-001</internalNodes>
          <leafValues>
            -8.3959865570068359e-001 6.4689582586288452e-001</leafValues></_>
        <_>
          <internalNodes>
            0 -1 9 5.5322265252470970e-003</internalNodes>
          <leafValues>
            -8.1938302516937256e-001 6.2764436006546021e-001</leafValues></_>
        <_>
          <internalNodes>
            0 -1 18 2.1156417205929756e-002</internalNodes>
          <leafValues>
            -9.4702452421188354e-001 4.3222671747207642e-001</leafValues></_></weakClassifiers></_>
    <!-- stage 3 -->
    <_>
      <maxWeakCount>5</maxWeakCount>
      <stageThreshold>-1.6208652257919312e+000</stageThreshold>
      <weakClassifiers>
        <_>
          <internalNodes>
            0 -1 43 -5.1520243287086487e-002</internalNodes>
          <leafValues>
            6.7917203903198242e-001 -9.0641462802886963e-001</leafValues></_>
        <_>
          <internalNodes>
            0 -1 5 2.3145742714405060e-002</internalNodes>
          <leafValues>
            -8.5316646099090576e-001 3.8869819045066833e-001</leafValues></_>
        <_>
          <internalNodes>
            0 -1 46 -2.0736310631036758e-002</internalNodes>
          <leafValues>
            3.8493382930755615e-001 -9.1375392675399780e-001</leafValues></_>
        <_>
          <internalNodes>
            0 -1 4 9.1967675834894180e-003</internalNodes>
          <leafValues>
            -6.2692385911941528e-001 7.1999698877334595e-001</leafValues></_>
        <_>
          <internalNodes>
            0 -1 45 1.0806322097778320e-001</internalNodes>
          <leafValues>
            -9.0939176082611084e-001 4.3776318430900574e-001</leafValues></_></weakClassifiers></_>
    <!-- stage 4 -->
    <_>
      <maxWeakCount>5</maxWeakCount>
      <stageThreshold>-2.6439740657806396e+000</stageThreshold>
      <weakClassifiers>
        <_>
          <internalNodes>
            0 -1 42 2.6593796908855438e-002</internalNodes>
          <leafValues>
            -8.6953955888748169e-001 8.9215683937072754e-001</leafValues></_>
        <_>
          <internalNodes>
            0 -1 17 -2.8458319604396820e-002</internalNodes>
          <leafValues>
            3.9804899692535400e-001 -8.4874969720840454e-001</leafValues></_>
        <_>
          <internalNodes>
            0 -1 1 -2.6142755523324013e-002</internalNodes>
          <leafValues>
            3.9919716119766235e-001 -8.7998372316360474e-001</leafValues></_>
        <_>
          <internalNodes>
            0 -1 13 -2.2372806444764137e-002</internalNodes>
          <leafValues>
            7.7459263801574707e-001 -5.1780259609222412e-001</leafValues></_>
        <_>
          <internalNodes>
            0 -1 16 -2.1550046280026436e-002</internalNodes>
          <leafValues>
            4.4784599542617798e-001 -8.2029378414154053e-001</leafValues></_></weakClassifiers></_>
    <!-- stage 5 -->
    <_>
      <maxWeakCount>5</maxWeakCount>
      <stageThreshold>-1.7611528635025024e+000</stageThreshold>
      <weakClassifiers>
        <_>
          <internalNodes>
            0 -1 41 3.6776855587959290e-002</internalNodes>
          <leafValues>
            -8.4530061483383179e-001 8.6411148309707642e-001</leafValues></_>
        <_>
          <internalNodes>
            0 -1 47 3.0704010277986526e-002</internalNodes>
          <leafValues>
            -6.9862580299377441e-001 6.4506280422210693e-001</leafValues></_>
        <_>
          <internalNodes>
            0 -1 27 1.5490583609789610e-004</internalNodes>
          <leafValues>
            -9.8051851987838745e-001 3.7712708115577698e-001</leafValues></_>
        <_>
          <internalNodes>
            0 -1 23 -4.0613589808344841e-003</internalNodes>
          <leafValues>
            -9.6451330184936523e-001 2.5961312651634216e-001</leafValues></_>
        <_>
          <internalNodes>
            0 -1 2 -1.3739985413849354e-002</internalNodes>
          <leafValues>
            3.7015971541404724e-001 -7.5437319278717041e-001</leafValues></_></weakClassifiers></_>
    <!-- stage 6 -->
    <_>
      <maxWeakCount>5</maxWeakCount>
      <stageThreshold>-1.8494184017181396e+000</stageThreshold>
      <weakClassifiers>
        <_>
          <internalNodes>
            0 -1 40 1.0049004852771759e-001</internalNodes>
          <leafValues>
            -8.5628020763397217e-001 6.3372093439102173e-001</leafValues></_>
        <_>
          <internalNodes>
            0 -1 20 -1.2541289441287518e-002</internalNodes>
          <leafValues>
            5.1030141115188599e-001 -6.9784367084503174e-001</leafValues></_>
        <_>
          <internalNodes>
            0 -1 3 1.3931432738900185e-002</internalNodes>
          <leafValues>
            -7.9002010822296143e-001 3.9207565784454346e-001</leafValues></_>
        <_>
          <internalNodes>
            0 -1 29 -3.2414891757071018e-003</internalNodes>
          <leafValues>
            -9.7497922182083130e-001 2.8114444017410278e-001</leafValues></_>
        <_>
          <internalNodes>
            0 -1 19 -6.8776635453104973e-004</internalNodes>
          <leafValues>
            -9.8139953613281250e-001 2.1358117461204529e-001</leafValues></_></weakClassifiers></_>
    <!-- stage 7 -->
    <_>
      <maxWeakCount>7</maxWeakCount>
      <stageThreshold>-2.2394676208496094e+000</stageThreshold>
      <weakClassifiers>
        <_>
          <internalNodes>
            0 -1 21 -3.5509839653968811e-002</internalNodes>
          <leafValues>
            7.3333334922790527e-001 -8.1480407714843750e-001</leafValues></_>
        <_>
          <internalNodes>
            0 -1 36 5.7737067341804504e-002</internalNodes>
          <leafValues>
            -8.3227783441543579e-001 3.3563736081123352e-001</leafValues></_>
        <_>
          <internalNodes>
            0 -1 31 4.5895479619503021e-002</internalNodes>
          <leafValues>
            -8.6624127626419067e-001 3.5360589623451233e-001</leafValues></_>
        <_>
          <internalNodes>
            0 -1 6 2.1215803921222687e-002</internalNodes>
          <leafValues>
            -5.7014811038970947e-001 5.6737720966339111e-001</leafValues></_>
        <_>
          <internalNodes>
            0 -1 14 -6.6720023751258850e-003</internalNodes>
          <leafValues>
            4.6333771944046021e-001 -6.9512724876403809e-001</leafValues></_>
        <_>
          <internalNodes>
            0 -1 30 -7.0634545409120619e-005</internalNodes>
          <leafValues>
            4.2945262789726257e-001 -7.4558740854263306e-001</leafValues></_>
        <_>
          <internalNodes>
            0 -1 8 -1.7186239361763000e-002</internalNodes>
          <leafValues>
            7.1902936697006226e-001 -4.3845912814140320e-001</leafValues></_></weakClassifiers></_>
    <!-- stage 8 -->
    <_>
      <maxWeakCount>5</maxWeakCount>
      <stageThreshold>-1.9938526153564453e+000</stageThreshold>
      <weakClassifiers>
        <_>
          <internalNodes>
            0 -1 10 1.6566196084022522e-001</internalNodes>
          <leafValues>
            -7.7348995208740234e-001 8.6320751905441284e-001</leafValues></_>
        <_>
          <internalNodes>
            0 -1 32 -5.6686874479055405e-002</internalNodes>
          <leafValues>
            3.3020576834678650e-001 -8.3386200666427612e-001</leafValues></_>
        <_>
          <internalNodes>
            0 -1 37 -5.5174001317936927e-005</internalNodes>
          <leafValues>
            2.5826269388198853e-001 -8.7313246726989746e-001</leafValues></_>
        <_>
          <internalNodes>
            0 -1 35 -3.3294938504695892e-002</internalNodes>
          <leafValues>
            -9.5326828956604004e-001 2.2803205251693726e-001</leafValues></_>
        <_>
          <internalNodes>
            0 -1 28 4.6722635626792908e-002</internalNodes>
          <leafValues>
            -9.8862093687057495e-001 2.5859972834587097e-001</leafValues></_></weakClassifiers></_>
    <!-- stage 9 -->
    <_>
      <maxWeakCount>6</maxWeakCount>
      <stageThreshold>-1.5306107997894287e+000</stageThreshold>
      <weakClassifiers>
        <_>
          <internalNodes>
            0 -1 39 4.9421098083257675e-002</internalNodes>
          <leafValues>
            -8.4364622831344604e-001 5.7496362924575806e-001</leafValues></_>
        <_>
          <internalNodes>
            0 -1 26 -4.7755786217749119e-003</internalNodes>
          <leafValues>
            -9.8928201198577881e-001 1.1898451298475266e-001</leafValues></_>
        <_>
          <internalNodes>
            0 -1 22 -1.8472737865522504e-003</internalNodes>
          <leafValues>
            3.9674189686775208e-001 -7.1898949146270752e-001</leafValues></_>
        <_>
          <internalNodes>
            0 -1 44 -3.8428902626037598e-002</internalNodes>
          <leafValues>
            5.5843818187713623e-001 -5.7006883621215820e-001</leafValues></_>
        <_>
          <internalNodes>
            0 -1 25 -1.8337601795792580e-003</internalNodes>
          <leafValues>
            -9.8078012466430664e-001 3.4930810332298279e-001</leafValues></_>
        <_>
          <internalNodes>
            0 -1 7 -6.5023719798773527e-005</internalNodes>
          <leafValues>
            3.4815803170204163e-001 -8.6031013727188110e-001</leafValues></_></weakClassifiers></_></stages>
  <features>
    <_>
      <rects>
        <_>
          0 8 8 8 -1.</_>
        <_>
          0 8 4 4 2.</_>
        <_>
          4 12 4 4 2.</_></rects>
      <tilted>0</tilted></_>
    <_>
      <rects>
        <_>
          1 8 6 8 -1.</_>
        <_>
          1 8 3 4 2.</_>
        <_>
          4 12 3 4 2.</_></rects>
      <tilted>0</tilted></_>
    <_>
      <rects>
        <_>
          2 14 18 6 -1.</_>
        <_>
          2 14 9 3 2.</_>
        <_>
          11 17 9 3 2.</_></rects>
      <tilted>0</tilted></_>
    <_>
      <rects>
        <_>
          2 15 14 3 -1.</_>
        <_>
          9 15 7 3 2.</_></rects>
      <tilted>0</tilted></_>
    <_>
      <rects>
        <_>
          3 1 2 10 -1.</_>
        <_>
          3 1 1 5 2.</_>
        <_>
          4 6 1 5 2.</_></rects>
      <tilted>0</tilted></_>
    <_>
      <rects>
        <_>
          3 4 8 10 -1.</_>
        <_>
          5 4 4 10 2.</_></rects>
      <tilted>0</tilted></_>
    <_>
      <rects>
        <_>
          3 6 6 2 -1.</_>
        <_>
          3 6 6 1 2.</_></rects>
      <tilted>1</tilted></_>
    <_>
      <rects>
        <_>
          3 15 8 2 -1.</_>
        <_>
          5 15 4 2 2.</_></rects>
      <tilted>0</tilted></_>
    <_>
      <rects>
        <_>
          4 2 3 3 -1.</_>
        <_>
          5 3 1 3 3.</_></rects>
      <tilted>1</tilted></_>
    <_>
      <rects>
        <_>
          4 7 2 7 -1.</_>
        <_>
          5 7 1 7 2.</_></rects>
      <tilted>0</tilted></_>
    <_>
      <rects>
        <_>
          5 4 5 9 -1.</_>
        <_>
          5 7 5 3 3.</_></rects>
      <tilted>0</tilted></_>
    <_>
      <rects>
        <_>
          5 5 8 8 -1.</_>
        <_>
          5 7 8 4 2.</_></rects>
      <tilted>0</tilted></_>
    <_>
      <rects>
        <_>
          5 5 8 9 -1.</_>
        <_>
          5 8 8 3 3.</_></rects>
      <tilted>0</tilted></_>
    <_>
      <rects>
        <_>
          6 0 3 5 -1.</_>
        <_>
          7 1 1 5 3.</_></rects>
      <tilted>1</tilted></_>
    <_>
      <rects>
        <_>
          6 2 6 11 -1.</_>
        <_>
          8 2 2 11 3.</_></rects>
      <tilted>0</tilted></_>
    <_>
      <rects>
        <_>
          6 4 7 12 -1.</_>
        <_>
          6 7 7 6 2.</_></rects>
      <tilted>0</tilted></_>
    <_>
      <rects>
        <_>
          6 6 14 4 -1.</_>
        <_>
          6 6 7 2 2.</_>
        <_>
          13 8 7 2 2.</_></rects>
      <tilted>0</tilted></_>
    <_>
      <rects>
        <_>
          6 7 9 11 -1.</_>
        <_>
          9 7 3 11 3.</_></rects>
      <tilted>0</tilted></_>
    <_>
      <rects>
        <_>
          6 7 8 10 -1.</_>
        <_>
          6 7 4 5 2.</_>
        <_>
          10 12 4 5 2.</_></rects>
      <tilted>0</tilted></_>
    <_>
      <rects>
        <_>
          7 4 6 1 -1.</_>
        <_>
          9 4 2 1 3.</_></rects>
      <tilted>0</tilted></_>
    <_>
      <rects>
        <_>
          7 9 6 2 -1.</_>
        <_>
          7 10 6 1 2.</_></rects>
      <tilted>0</tilted></_>
    <_>
      <rects>
        <_>
          8 0 3 7 -1.</_>
        <_>
          9 1 1 7 3.</_></rects>
      <tilted>1</tilted></_>
    <_>
      <rects>
        <_>
          8 1 7 4 -1.</_>
        <_>
          8 2 7 2 2.</_></rects>
      <tilted>0</tilted></_>
    <_>
      <rects>
        <_>
          8 4 6 3 -1.</_>
        <_>
          10 5 2 1 9.</_></rects>
      <tilted>0</tilted></_>
    <_>
      <rects>
        <_>
          8 8 8 6 -1.</_>
        <_>
          8 8 4 3 2.</_>
        <_>
          12 11 4 3 2.</_></rects>
      <tilted>0</tilted></_>
    <_>
      <rects>
        <_>
          8 13 6 3 -1.</_>
        <_>
          8 14 6 1 3.</_></rects>
      <tilted>0</tilted></_>
    <_>
      <rects>
        <_>
          8 13 6 4 -1.</_>
        <_>
          8 15 6 2 2.</_></rects>
      <tilted>0</tilted></_>
    <_>
      <rects>
        <_>
          9 1 4 2 -1.</_>
        <_>
          9 1 2 2 2.</_></rects>
      <tilted>1</tilted></_>
    <_>
      <rects>
        <_>
          9 1 3 18 -1.</_>
        <_>
          9 7 3 6 3.</_></rects>
      <tilted>0</tilted></_>
    <_>
      <rects>
        <_>
          9 3 4 4 -1.</_>
        <_>
          9 5 4 2 2.</_></rects>
      <tilted>0</tilted></_>
    <_>
      <rects>
        <_>
          9 3 5 4 -1.</_>
        <_>
          9 5 5 2 2.</_></rects>
      <tilted>0</tilted></_>
    <_>
      <rects>
        <_>
          9 4 5 8 -1.</_>
        <_>
          9 8 5 4 2.</_></rects>
      <tilted>0</tilted></_>
    <_>
      <rects>
        <_>
          9 7 8 5 -1.</_>
        <_>
          11 9 4 5 2.</_></rects>
      <tilted>1</tilted></_>
    <_>
      <rects>
        <_>
          9 8 9 11 -1.</_>
        <_>
          12 8 3 11 3.</_></rects>
      <tilted>0</tilted></_>
    <_>
      <rects>
        <_>
          10 10 8 9 -1.</_>
        <_>
          12 10 4 9 2.</_></rects>
      <tilted>0</tilted></_>
    <_>
      <rects>
        <_>
          10 10 10 9 -1.</_>
        <_>
          10 13 10 3 3.</_></rects>
      <tilted>0</tilted></_>
    <_>
      <rects>
        <_>
          10 12 8 7 -1.</_>
        <_>
          12 12 4 7 2.</_></rects>
      <tilted>0</tilted></_>
    <_>
      <rects>
        <_>
          11 1 4 2 -1.</_>
        <_>
          12 2 2 2 2.</_></rects>
      <tilted>1</tilted></_>
    <_>
      <rects>
        <_>
          11 3 8 8 -1.</_>
        <_>
          9 5 8 4 2.</_></rects>
      <tilted>1</tilted></_>
    <_>
      <rects>
        <_>
          11 4 4 12 -1.</_>
        <_>
          11 4 2 6 2.</_>
        <_>
          13 10 2 6 2.</_></rects>
      <tilted>0</tilted></_>
    <_>
      <rects>
        <_>
          11 11 6 7 -1.</_>
        <_>
          13 11 2 7 3.</_></rects>
      <tilted>0</tilted></_>
    <_>
      <rects>
        <_>
          12 9 3 8 -1.</_>
        <_>
          13 9 1 8 3.</_></rects>
      <tilted>0</tilted></_>
    <_>
      <rects>
        <_>
          12 10 3 7 -1.</_>
        <_>
          13 10 1 7 3.</_></rects>
      <tilted>0</tilted></_>
    <_>
      <rects>
        <_>
          13 2 4 14 -1.</_>
        <_>
          13 2 2 7 2.</_>
        <_>
          15 9 2 7 2.</_></rects>
      <tilted>0</tilted></_>
    <_>
      <rects>
        <_>
          13 3 4 14 -1.</_>
        <_>
          13 3 2 7 2.</_>
        <_>
          15 10 2 7 2.</_></rects>
      <tilted>0</tilted></_>
    <_>
      <rects>
        <_>
          14 2 6 12 -1.</_>
        <_>
          11 5 6 6 2.</_></rects>
      <tilted>1</tilted></_>
    <_>
      <rects>
        <_>
          15 2 3 6 -1.</_>
        <_>
          13 4 3 2 3.</_></rects>
      <tilted>1</tilted></_>
    <_>
      <rects>
        <_>
          16 6 1 6 -1.</_>
        <_>
          14 8 1 2 3.</_></rects>
      <tilted>1</tilted></_></features></cascade>
</opencv_storage>
