<?xml version="1.0"?>
<opencv_storage>
<stage9>
  <maxWeakCount>6</maxWeakCount>
  <stageThreshold>-1.5306107997894287e+000</stageThreshold>
  <weakClassifiers>
    <_>
      <internalNodes>
        0 -1 96190 4.9421098083257675e-002</internalNodes>
      <leafValues>
        -8.4364622831344604e-001 5.7496362924575806e-001</leafValues></_>
    <_>
      <internalNodes>
        0 -1 79376 -4.7755786217749119e-003</internalNodes>
      <leafValues>
        -9.8928201198577881e-001 1.1898451298475266e-001</leafValues></_>
    <_>
      <internalNodes>
        0 -1 73477 -1.8472737865522504e-003</internalNodes>
      <leafValues>
        3.9674189686775208e-001 -7.1898949146270752e-001</leafValues></_>
    <_>
      <internalNodes>
        0 -1 107178 -3.8428902626037598e-002</internalNodes>
      <leafValues>
        5.5843818187713623e-001 -5.7006883621215820e-001</leafValues></_>
    <_>
      <internalNodes>
        0 -1 79372 -1.8337601795792580e-003</internalNodes>
      <leafValues>
        -9.8078012466430664e-001 3.4930810332298279e-001</leafValues></_>
    <_>
      <internalNodes>
        0 -1 37454 -6.5023719798773527e-005</internalNodes>
      <leafValues>
        3.4815803170204163e-001 -8.6031013727188110e-001</leafValues></_></weakClassifiers></stage9>
</opencv_storage>
