<?xml version="1.0"?>
<opencv_storage>
<stage4>
  <maxWeakCount>5</maxWeakCount>
  <stageThreshold>-1.6903549432754517e+00</stageThreshold>
  <weakClassifiers>
    <_>
      <internalNodes>
        0 -1 12682 -5.6874170899391174e-02</internalNodes>
      <leafValues>
        7.9650241136550903e-01 -8.6204874515533447e-01</leafValues></_>
    <_>
      <internalNodes>
        0 -1 26747 4.7313943505287170e-02</internalNodes>
      <leafValues>
        -8.7103968858718872e-01 5.9626239538192749e-01</leafValues></_>
    <_>
      <internalNodes>
        0 -1 102382 -5.6747127324342728e-02</internalNodes>
      <leafValues>
        -7.6819777488708496e-01 5.9768271446228027e-01</leafValues></_>
    <_>
      <internalNodes>
        0 -1 68138 -5.4725430905818939e-02</internalNodes>
      <leafValues>
        5.1115620136260986e-01 -9.8537260293960571e-01</leafValues></_>
    <_>
      <internalNodes>
        0 -1 101858 -4.6716228127479553e-02</internalNodes>
      <leafValues>
        4.3042331933975220e-01 -9.4008839130401611e-01</leafValues></_></weakClassifiers></stage4>
</opencv_storage>
